digraph Tree {
node [shape=box] ;
0 [label="Wind <= 1.25\nmse = 57033.852\nsamples = 828\nvalue = 179.743"] ;
1 [label="RouteID <= 1550.0\nmse = 172508.451\nsamples = 184\nvalue = 310.216"] ;
0 -> 1 [labeldistance=2.5, labelangle=45, headlabel="True"] ;
2 [label="RouteID <= 87.5\nmse = 37161.553\nsamples = 79\nvalue = 232.134"] ;
1 -> 2 ;
3 [label="RouteID <= 60.0\nmse = 39248.723\nsamples = 67\nvalue = 258.055"] ;
2 -> 3 ;
4 [label="mse = 16634.445\nsamples = 17\nvalue = 154.569"] ;
3 -> 4 ;
5 [label="RouteID <= 72.5\nmse = 42058.341\nsamples = 50\nvalue = 293.241"] ;
3 -> 5 ;
6 [label="mse = 28468.24\nsamples = 25\nvalue = 317.123"] ;
5 -> 6 ;
7 [label="RouteID <= 80.0\nmse = 54507.723\nsamples = 25\nvalue = 269.359"] ;
5 -> 7 ;
8 [label="mse = 116.327\nsamples = 2\nvalue = 82.647"] ;
7 -> 8 ;
9 [label="mse = 55942.384\nsamples = 23\nvalue = 285.594"] ;
7 -> 9 ;
10 [label="mse = 809.682\nsamples = 12\nvalue = 87.403"] ;
2 -> 10 ;
11 [label="RouteID <= 3015.0\nmse = 266302.339\nsamples = 105\nvalue = 368.964"] ;
1 -> 11 ;
12 [label="mse = 643521.572\nsamples = 24\nvalue = 741.942"] ;
11 -> 12 ;
13 [label="RouteID <= 3030.0\nmse = 101102.253\nsamples = 81\nvalue = 258.452"] ;
11 -> 13 ;
14 [label="mse = 2173.031\nsamples = 13\nvalue = 100.842"] ;
13 -> 14 ;
15 [label="RouteID <= 3180.0\nmse = 114358.287\nsamples = 68\nvalue = 288.584"] ;
13 -> 15 ;
16 [label="RouteID <= 3105.0\nmse = 106606.934\nsamples = 42\nvalue = 263.474"] ;
15 -> 16 ;
17 [label="mse = 62612.198\nsamples = 30\nvalue = 267.286"] ;
16 -> 17 ;
18 [label="mse = 216466.588\nsamples = 12\nvalue = 253.942"] ;
16 -> 18 ;
19 [label="RouteID <= 3300.0\nmse = 124215.847\nsamples = 26\nvalue = 329.146"] ;
15 -> 19 ;
20 [label="mse = 188448.515\nsamples = 16\nvalue = 373.159"] ;
19 -> 20 ;
21 [label="mse = 13385.031\nsamples = 10\nvalue = 258.725"] ;
19 -> 21 ;
22 [label="CurrentTime <= 20.5\nmse = 17787.695\nsamples = 644\nvalue = 142.465"] ;
0 -> 22 [labeldistance=2.5, labelangle=-45, headlabel="False"] ;
23 [label="RouteID <= 72.5\nmse = 8971.623\nsamples = 620\nvalue = 135.527"] ;
22 -> 23 ;
24 [label="Wind <= 3.197\nmse = 12224.282\nsamples = 150\nvalue = 163.604"] ;
23 -> 24 ;
25 [label="RouteID <= 60.0\nmse = 16359.408\nsamples = 80\nvalue = 191.984"] ;
24 -> 25 ;
26 [label="Temperature <= 11.099\nmse = 24494.442\nsamples = 36\nvalue = 221.19"] ;
25 -> 26 ;
27 [label="mse = 0.0\nsamples = 1\nvalue = 67.228"] ;
26 -> 27 ;
28 [label="CurrentTime <= 19.5\nmse = 24497.668\nsamples = 35\nvalue = 225.589"] ;
26 -> 28 ;
29 [label="CurrentTime <= 13.0\nmse = 25598.634\nsamples = 31\nvalue = 216.402"] ;
28 -> 29 ;
30 [label="Temperature <= 15.656\nmse = 14934.795\nsamples = 16\nvalue = 236.087"] ;
29 -> 30 ;
31 [label="mse = 18176.607\nsamples = 2\nvalue = 296.238"] ;
30 -> 31 ;
32 [label="Temperature <= 15.659\nmse = 13880.959\nsamples = 14\nvalue = 227.493"] ;
30 -> 32 ;
33 [label="Temperature <= 15.658\nmse = 3713.56\nsamples = 5\nvalue = 207.264"] ;
32 -> 33 ;
34 [label="Temperature <= 15.657\nmse = 2536.051\nsamples = 4\nvalue = 227.787"] ;
33 -> 34 ;
35 [label="Temperature <= 15.657\nmse = 209.819\nsamples = 2\nvalue = 194.173"] ;
34 -> 35 ;
36 [label="mse = 0.0\nsamples = 1\nvalue = 179.688"] ;
35 -> 36 ;
37 [label="mse = 0.0\nsamples = 1\nvalue = 208.658"] ;
35 -> 37 ;
38 [label="mse = 2602.452\nsamples = 2\nvalue = 261.401"] ;
34 -> 38 ;
39 [label="mse = -0.0\nsamples = 1\nvalue = 125.174"] ;
33 -> 39 ;
40 [label="mse = 19175.862\nsamples = 9\nvalue = 238.732"] ;
32 -> 40 ;
41 [label="CurrentTime <= 18.5\nmse = 36119.18\nsamples = 15\nvalue = 195.404"] ;
29 -> 41 ;
42 [label="mse = 1203.158\nsamples = 5\nvalue = 130.863"] ;
41 -> 42 ;
43 [label="mse = 50452.997\nsamples = 10\nvalue = 227.675"] ;
41 -> 43 ;
44 [label="mse = 10241.563\nsamples = 4\nvalue = 296.789"] ;
28 -> 44 ;
45 [label="Temperature <= 15.659\nmse = 8434.572\nsamples = 44\nvalue = 168.088"] ;
25 -> 45 ;
46 [label="CurrentTime <= 19.5\nmse = 8918.921\nsamples = 37\nvalue = 177.334"] ;
45 -> 46 ;
47 [label="Temperature <= 15.656\nmse = 9173.38\nsamples = 32\nvalue = 185.379"] ;
46 -> 47 ;
48 [label="CurrentTime <= 13.0\nmse = 9909.893\nsamples = 27\nvalue = 178.238"] ;
47 -> 48 ;
49 [label="Temperature <= 15.653\nmse = 2728.27\nsamples = 8\nvalue = 136.908"] ;
48 -> 49 ;
50 [label="Temperature <= 15.652\nmse = 364.026\nsamples = 4\nvalue = 98.43"] ;
49 -> 50 ;
51 [label="Temperature <= 15.651\nmse = 447.957\nsamples = 2\nvalue = 90.327"] ;
50 -> 51 ;
52 [label="mse = 0.0\nsamples = 1\nvalue = 111.492"] ;
51 -> 52 ;
53 [label="mse = -0.0\nsamples = 1\nvalue = 69.162"] ;
51 -> 53 ;
54 [label="Temperature <= 15.652\nmse = 148.776\nsamples = 2\nvalue = 106.533"] ;
50 -> 54 ;
55 [label="mse = 0.0\nsamples = 1\nvalue = 118.731"] ;
54 -> 55 ;
56 [label="mse = 0.0\nsamples = 1\nvalue = 94.336"] ;
54 -> 56 ;
57 [label="Temperature <= 15.654\nmse = 2131.386\nsamples = 4\nvalue = 175.387"] ;
49 -> 57 ;
58 [label="Temperature <= 15.653\nmse = 33.422\nsamples = 2\nvalue = 213.829"] ;
57 -> 58 ;
59 [label="mse = 0.0\nsamples = 1\nvalue = 219.61"] ;
58 -> 59 ;
60 [label="mse = 0.0\nsamples = 1\nvalue = 208.048"] ;
58 -> 60 ;
61 [label="Temperature <= 15.655\nmse = 1273.718\nsamples = 2\nvalue = 136.944"] ;
57 -> 61 ;
62 [label="mse = 0.0\nsamples = 1\nvalue = 101.255"] ;
61 -> 62 ;
63 [label="mse = -0.0\nsamples = 1\nvalue = 172.633"] ;
61 -> 63 ;
64 [label="CurrentTime <= 18.5\nmse = 11911.671\nsamples = 19\nvalue = 195.641"] ;
48 -> 64 ;
65 [label="mse = 13790.581\nsamples = 8\nvalue = 211.362"] ;
64 -> 65 ;
66 [label="mse = 10234.699\nsamples = 11\nvalue = 184.207"] ;
64 -> 66 ;
67 [label="Temperature <= 15.657\nmse = 3434.066\nsamples = 5\nvalue = 223.938"] ;
47 -> 67 ;
68 [label="mse = 654.817\nsamples = 3\nvalue = 252.98"] ;
67 -> 68 ;
69 [label="Temperature <= 15.658\nmse = 4440.087\nsamples = 2\nvalue = 180.375"] ;
67 -> 69 ;
70 [label="mse = 0.0\nsamples = 1\nvalue = 113.741"] ;
69 -> 70 ;
71 [label="mse = 0.0\nsamples = 1\nvalue = 247.009"] ;
69 -> 71 ;
72 [label="Temperature <= 10.977\nmse = 4225.363\nsamples = 5\nvalue = 125.848"] ;
46 -> 72 ;
73 [label="mse = 0.0\nsamples = 1\nvalue = 111.008"] ;
72 -> 73 ;
74 [label="mse = 5212.88\nsamples = 4\nvalue = 129.558"] ;
72 -> 74 ;
75 [label="mse = 3034.09\nsamples = 7\nvalue = 119.216"] ;
45 -> 75 ;
76 [label="Wind <= 4.85\nmse = 5526.0\nsamples = 70\nvalue = 131.17"] ;
24 -> 76 ;
77 [label="RouteID <= 60.0\nmse = 4544.137\nsamples = 51\nvalue = 122.071"] ;
76 -> 77 ;
78 [label="Temperature <= 10.823\nmse = 1351.002\nsamples = 27\nvalue = 97.783"] ;
77 -> 78 ;
79 [label="mse = 0.0\nsamples = 1\nvalue = 60.618"] ;
78 -> 79 ;
80 [label="Wind <= 4.268\nmse = 1347.795\nsamples = 26\nvalue = 99.212"] ;
78 -> 80 ;
81 [label="Wind <= 3.855\nmse = 156.702\nsamples = 2\nvalue = 121.738"] ;
80 -> 81 ;
82 [label="mse = 0.0\nsamples = 1\nvalue = 109.219"] ;
81 -> 82 ;
83 [label="mse = -0.0\nsamples = 1\nvalue = 134.256"] ;
81 -> 83 ;
84 [label="CurrentTime <= 18.5\nmse = 1401.247\nsamples = 24\nvalue = 97.335"] ;
80 -> 84 ;
85 [label="mse = 2211.907\nsamples = 10\nvalue = 103.859"] ;
84 -> 85 ;
86 [label="CurrentTime <= 19.5\nmse = 770.092\nsamples = 14\nvalue = 92.675"] ;
84 -> 86 ;
87 [label="mse = 901.51\nsamples = 11\nvalue = 91.364"] ;
86 -> 87 ;
88 [label="mse = 258.812\nsamples = 3\nvalue = 97.483"] ;
86 -> 88 ;
89 [label="CurrentTime <= 18.5\nmse = 6726.162\nsamples = 24\nvalue = 149.395"] ;
77 -> 89 ;
90 [label="mse = 9539.088\nsamples = 10\nvalue = 192.345"] ;
89 -> 90 ;
91 [label="Wind <= 3.721\nmse = 2458.126\nsamples = 14\nvalue = 118.716"] ;
89 -> 91 ;
92 [label="Temperature <= 10.675\nmse = 0.959\nsamples = 2\nvalue = 75.024"] ;
91 -> 92 ;
93 [label="mse = 0.0\nsamples = 1\nvalue = 74.045"] ;
92 -> 93 ;
94 [label="mse = 0.0\nsamples = 1\nvalue = 76.004"] ;
92 -> 94 ;
95 [label="Wind <= 4.268\nmse = 2496.462\nsamples = 12\nvalue = 125.998"] ;
91 -> 95 ;
96 [label="mse = 0.0\nsamples = 1\nvalue = 218.469"] ;
95 -> 96 ;
97 [label="CurrentTime <= 19.5\nmse = 1875.397\nsamples = 11\nvalue = 117.592"] ;
95 -> 97 ;
98 [label="mse = 1422.941\nsamples = 8\nvalue = 114.915"] ;
97 -> 98 ;
99 [label="mse = 3011.868\nsamples = 3\nvalue = 124.731"] ;
97 -> 99 ;
100 [label="RouteID <= 60.0\nmse = 7342.691\nsamples = 19\nvalue = 155.595"] ;
76 -> 100 ;
101 [label="CurrentTime <= 19.5\nmse = 8984.166\nsamples = 9\nvalue = 210.81"] ;
100 -> 101 ;
102 [label="Temperature <= 10.905\nmse = 3087.211\nsamples = 3\nvalue = 269.808"] ;
101 -> 102 ;
103 [label="mse = 41.547\nsamples = 2\nvalue = 308.92"] ;
102 -> 103 ;
104 [label="mse = 0.0\nsamples = 1\nvalue = 191.583"] ;
102 -> 104 ;
105 [label="Temperature <= 10.902\nmse = 9322.128\nsamples = 6\nvalue = 181.312"] ;
101 -> 105 ;
106 [label="Temperature <= 10.901\nmse = 867.946\nsamples = 3\nvalue = 95.061"] ;
105 -> 106 ;
107 [label="mse = 1248.967\nsamples = 2\nvalue = 99.262"] ;
106 -> 107 ;
108 [label="mse = 0.0\nsamples = 1\nvalue = 86.658"] ;
106 -> 108 ;
109 [label="Temperature <= 10.909\nmse = 2897.903\nsamples = 3\nvalue = 267.562"] ;
105 -> 109 ;
110 [label="Temperature <= 10.906\nmse = 17.248\nsamples = 2\nvalue = 305.552"] ;
109 -> 110 ;
111 [label="mse = 0.0\nsamples = 1\nvalue = 309.705"] ;
110 -> 111 ;
112 [label="mse = 0.0\nsamples = 1\nvalue = 301.399"] ;
110 -> 112 ;
113 [label="mse = 0.0\nsamples = 1\nvalue = 191.583"] ;
109 -> 113 ;
114 [label="CurrentTime <= 19.5\nmse = 652.118\nsamples = 10\nvalue = 105.902"] ;
100 -> 114 ;
115 [label="mse = 554.503\nsamples = 4\nvalue = 101.241"] ;
114 -> 115 ;
116 [label="mse = 693.06\nsamples = 6\nvalue = 109.009"] ;
114 -> 116 ;
117 [label="CurrentTime <= 13.0\nmse = 7601.657\nsamples = 470\nvalue = 126.567"] ;
23 -> 117 ;
118 [label="RouteID <= 87.5\nmse = 13608.275\nsamples = 104\nvalue = 148.629"] ;
117 -> 118 ;
119 [label="Temperature <= 15.653\nmse = 3526.769\nsamples = 22\nvalue = 108.974"] ;
118 -> 119 ;
120 [label="Temperature <= 15.651\nmse = 8264.843\nsamples = 5\nvalue = 173.589"] ;
119 -> 120 ;
121 [label="mse = 8346.106\nsamples = 4\nvalue = 153.664"] ;
120 -> 121 ;
122 [label="mse = -0.0\nsamples = 1\nvalue = 253.287"] ;
120 -> 122 ;
123 [label="Temperature <= 15.659\nmse = 544.09\nsamples = 17\nvalue = 89.969"] ;
119 -> 123 ;
124 [label="Temperature <= 15.656\nmse = 213.828\nsamples = 9\nvalue = 82.986"] ;
123 -> 124 ;
125 [label="Temperature <= 15.654\nmse = 328.73\nsamples = 2\nvalue = 94.765"] ;
124 -> 125 ;
126 [label="mse = 0.0\nsamples = 1\nvalue = 76.634"] ;
125 -> 126 ;
127 [label="mse = -0.0\nsamples = 1\nvalue = 112.896"] ;
125 -> 127 ;
128 [label="Temperature <= 15.658\nmse = 130.033\nsamples = 7\nvalue = 79.621"] ;
124 -> 128 ;
129 [label="Temperature <= 15.657\nmse = 124.364\nsamples = 4\nvalue = 73.309"] ;
128 -> 129 ;
130 [label="RouteID <= 80.0\nmse = 50.363\nsamples = 2\nvalue = 82.996"] ;
129 -> 130 ;
131 [label="mse = 0.0\nsamples = 1\nvalue = 90.093"] ;
130 -> 131 ;
132 [label="mse = -0.0\nsamples = 1\nvalue = 75.899"] ;
130 -> 132 ;
133 [label="RouteID <= 80.0\nmse = 10.677\nsamples = 2\nvalue = 63.621"] ;
129 -> 133 ;
134 [label="mse = 0.0\nsamples = 1\nvalue = 66.889"] ;
133 -> 134 ;
135 [label="mse = 0.0\nsamples = 1\nvalue = 60.354"] ;
133 -> 135 ;
136 [label="Temperature <= 15.659\nmse = 13.63\nsamples = 3\nvalue = 88.037"] ;
128 -> 136 ;
137 [label="mse = 0.0\nsamples = 1\nvalue = 87.562"] ;
136 -> 137 ;
138 [label="mse = 20.275\nsamples = 2\nvalue = 88.275"] ;
136 -> 138 ;
139 [label="Temperature <= 15.66\nmse = 799.056\nsamples = 8\nvalue = 97.826"] ;
123 -> 139 ;
140 [label="mse = 0.0\nsamples = 1\nvalue = 141.348"] ;
139 -> 140 ;
141 [label="RouteID <= 80.0\nmse = 603.943\nsamples = 7\nvalue = 91.608"] ;
139 -> 141 ;
142 [label="mse = 688.442\nsamples = 4\nvalue = 92.395"] ;
141 -> 142 ;
143 [label="mse = 489.35\nsamples = 3\nvalue = 90.559"] ;
141 -> 143 ;
144 [label="RouteID <= 3015.0\nmse = 15777.988\nsamples = 82\nvalue = 159.268"] ;
118 -> 144 ;
145 [label="Temperature <= 15.654\nmse = 8928.974\nsamples = 32\nvalue = 203.469"] ;
144 -> 145 ;
146 [label="RouteID <= 1550.0\nmse = 12740.014\nsamples = 6\nvalue = 298.694"] ;
145 -> 146 ;
147 [label="mse = 0.0\nsamples = 1\nvalue = 518.738"] ;
146 -> 147 ;
148 [label="Temperature <= 15.653\nmse = 3667.364\nsamples = 5\nvalue = 254.685"] ;
146 -> 148 ;
149 [label="Temperature <= 15.651\nmse = 4109.297\nsamples = 3\nvalue = 265.862"] ;
148 -> 149 ;
150 [label="mse = 6160.446\nsamples = 2\nvalue = 266.943"] ;
149 -> 150 ;
151 [label="mse = 0.0\nsamples = 1\nvalue = 263.702"] ;
149 -> 151 ;
152 [label="mse = 2536.0\nsamples = 2\nvalue = 237.92"] ;
148 -> 152 ;
153 [label="RouteID <= 1550.0\nmse = 5474.019\nsamples = 26\nvalue = 181.494"] ;
145 -> 153 ;
154 [label="Temperature <= 15.657\nmse = 3853.211\nsamples = 15\nvalue = 203.046"] ;
153 -> 154 ;
155 [label="Temperature <= 15.657\nmse = 89.395\nsamples = 2\nvalue = 143.807"] ;
154 -> 155 ;
156 [label="mse = 0.0\nsamples = 1\nvalue = 153.262"] ;
155 -> 156 ;
157 [label="mse = -0.0\nsamples = 1\nvalue = 134.352"] ;
155 -> 157 ;
158 [label="Temperature <= 15.658\nmse = 3809.305\nsamples = 13\nvalue = 212.16"] ;
154 -> 158 ;
159 [label="mse = 615.533\nsamples = 2\nvalue = 245.487"] ;
158 -> 159 ;
160 [label="Temperature <= 15.66\nmse = 4151.332\nsamples = 11\nvalue = 206.101"] ;
158 -> 160 ;
161 [label="Temperature <= 15.659\nmse = 195.107\nsamples = 3\nvalue = 186.689"] ;
160 -> 161 ;
162 [label="mse = 0.0\nsamples = 1\nvalue = 171.777"] ;
161 -> 162 ;
163 [label="Temperature <= 15.659\nmse = 125.882\nsamples = 2\nvalue = 194.145"] ;
161 -> 163 ;
164 [label="mse = 0.0\nsamples = 1\nvalue = 205.365"] ;
163 -> 164 ;
165 [label="mse = -0.0\nsamples = 1\nvalue = 182.925"] ;
163 -> 165 ;
166 [label="mse = 5440.619\nsamples = 8\nvalue = 213.38"] ;
160 -> 166 ;
167 [label="Temperature <= 15.657\nmse = 6187.029\nsamples = 11\nvalue = 152.104"] ;
153 -> 167 ;
168 [label="Temperature <= 15.655\nmse = 11285.491\nsamples = 2\nvalue = 233.228"] ;
167 -> 168 ;
169 [label="mse = 0.0\nsamples = 1\nvalue = 126.995"] ;
168 -> 169 ;
170 [label="mse = 0.0\nsamples = 1\nvalue = 339.461"] ;
168 -> 170 ;
171 [label="Temperature <= 15.659\nmse = 3266.582\nsamples = 9\nvalue = 134.077"] ;
167 -> 171 ;
172 [label="mse = 0.0\nsamples = 1\nvalue = 100.759"] ;
171 -> 172 ;
173 [label="mse = 3518.799\nsamples = 8\nvalue = 138.241"] ;
171 -> 173 ;
174 [label="RouteID <= 3180.0\nmse = 18110.699\nsamples = 50\nvalue = 130.979"] ;
144 -> 174 ;
175 [label="Temperature <= 15.653\nmse = 23496.259\nsamples = 37\nvalue = 139.94"] ;
174 -> 175 ;
176 [label="Temperature <= 15.653\nmse = 58023.272\nsamples = 12\nvalue = 184.984"] ;
175 -> 176 ;
177 [label="RouteID <= 3105.0\nmse = 1437.256\nsamples = 10\nvalue = 115.39"] ;
176 -> 177 ;
178 [label="RouteID <= 3030.0\nmse = 491.932\nsamples = 8\nvalue = 101.065"] ;
177 -> 178 ;
179 [label="Temperature <= 15.651\nmse = 139.195\nsamples = 2\nvalue = 74.26"] ;
178 -> 179 ;
180 [label="mse = 0.0\nsamples = 1\nvalue = 86.058"] ;
179 -> 180 ;
181 [label="mse = 0.0\nsamples = 1\nvalue = 62.462"] ;
179 -> 181 ;
182 [label="Temperature <= 15.652\nmse = 290.161\nsamples = 6\nvalue = 110.0"] ;
178 -> 182 ;
183 [label="Temperature <= 15.65\nmse = 338.801\nsamples = 4\nvalue = 115.212"] ;
182 -> 183 ;
184 [label="mse = 237.472\nsamples = 3\nvalue = 107.893"] ;
183 -> 184 ;
185 [label="mse = 0.0\nsamples = 1\nvalue = 137.168"] ;
183 -> 185 ;
186 [label="Temperature <= 15.652\nmse = 29.921\nsamples = 2\nvalue = 99.577"] ;
182 -> 186 ;
187 [label="mse = 0.0\nsamples = 1\nvalue = 105.047"] ;
186 -> 187 ;
188 [label="mse = 0.0\nsamples = 1\nvalue = 94.107"] ;
186 -> 188 ;
189 [label="Temperature <= 15.652\nmse = 1114.808\nsamples = 2\nvalue = 172.687"] ;
177 -> 189 ;
190 [label="mse = 0.0\nsamples = 1\nvalue = 206.076"] ;
189 -> 190 ;
191 [label="mse = 0.0\nsamples = 1\nvalue = 139.298"] ;
189 -> 191 ;
192 [label="RouteID <= 3105.0\nmse = 195652.812\nsamples = 2\nvalue = 532.955"] ;
176 -> 192 ;
193 [label="mse = 0.0\nsamples = 1\nvalue = 90.628"] ;
192 -> 193 ;
194 [label="mse = 0.0\nsamples = 1\nvalue = 975.281"] ;
192 -> 194 ;
195 [label="RouteID <= 3030.0\nmse = 5481.914\nsamples = 25\nvalue = 118.319"] ;
175 -> 195 ;
196 [label="Temperature <= 15.659\nmse = 10248.005\nsamples = 10\nvalue = 155.177"] ;
195 -> 196 ;
197 [label="Temperature <= 15.657\nmse = 1096.185\nsamples = 5\nvalue = 99.804"] ;
196 -> 197 ;
198 [label="Temperature <= 15.656\nmse = 76.48\nsamples = 3\nvalue = 78.804"] ;
197 -> 198 ;
199 [label="Temperature <= 15.655\nmse = 28.65\nsamples = 2\nvalue = 84.16"] ;
198 -> 199 ;
200 [label="mse = 0.0\nsamples = 1\nvalue = 78.808"] ;
199 -> 200 ;
201 [label="mse = -0.0\nsamples = 1\nvalue = 89.513"] ;
199 -> 201 ;
202 [label="mse = -0.0\nsamples = 1\nvalue = 68.091"] ;
198 -> 202 ;
203 [label="Temperature <= 15.658\nmse = 972.009\nsamples = 2\nvalue = 131.304"] ;
197 -> 203 ;
204 [label="mse = 0.0\nsamples = 1\nvalue = 162.481"] ;
203 -> 204 ;
205 [label="mse = 0.0\nsamples = 1\nvalue = 100.127"] ;
203 -> 205 ;
206 [label="mse = 13267.471\nsamples = 5\nvalue = 210.55"] ;
196 -> 206 ;
207 [label="Temperature <= 15.656\nmse = 795.027\nsamples = 15\nvalue = 93.746"] ;
195 -> 207 ;
208 [label="Temperature <= 15.654\nmse = 485.956\nsamples = 3\nvalue = 129.071"] ;
207 -> 208 ;
209 [label="mse = 0.0\nsamples = 1\nvalue = 98.459"] ;
208 -> 209 ;
210 [label="Temperature <= 15.655\nmse = 26.081\nsamples = 2\nvalue = 144.378"] ;
208 -> 210 ;
211 [label="mse = 0.0\nsamples = 1\nvalue = 149.485"] ;
210 -> 211 ;
212 [label="mse = -0.0\nsamples = 1\nvalue = 139.271"] ;
210 -> 212 ;
213 [label="Temperature <= 15.66\nmse = 482.337\nsamples = 12\nvalue = 84.915"] ;
207 -> 213 ;
214 [label="Temperature <= 15.657\nmse = 41.88\nsamples = 5\nvalue = 68.831"] ;
213 -> 214 ;
215 [label="Temperature <= 15.656\nmse = 42.423\nsamples = 2\nvalue = 72.503"] ;
214 -> 215 ;
216 [label="mse = 0.0\nsamples = 1\nvalue = 65.99"] ;
215 -> 216 ;
217 [label="mse = 0.0\nsamples = 1\nvalue = 79.016"] ;
215 -> 217 ;
218 [label="Temperature <= 15.658\nmse = 26.536\nsamples = 3\nvalue = 66.383"] ;
214 -> 218 ;
219 [label="RouteID <= 3105.0\nmse = 0.642\nsamples = 2\nvalue = 62.77"] ;
218 -> 219 ;
220 [label="mse = 0.0\nsamples = 1\nvalue = 61.969"] ;
219 -> 220 ;
221 [label="mse = 0.0\nsamples = 1\nvalue = 63.571"] ;
219 -> 221 ;
222 [label="mse = 0.0\nsamples = 1\nvalue = 73.609"] ;
218 -> 222 ;
223 [label="RouteID <= 3105.0\nmse = 480.183\nsamples = 7\nvalue = 96.403"] ;
213 -> 223 ;
224 [label="mse = 488.837\nsamples = 2\nvalue = 94.548"] ;
223 -> 224 ;
225 [label="mse = 474.794\nsamples = 5\nvalue = 97.146"] ;
223 -> 225 ;
226 [label="Temperature <= 15.654\nmse = 1903.597\nsamples = 13\nvalue = 105.475"] ;
174 -> 226 ;
227 [label="RouteID <= 3300.0\nmse = 337.297\nsamples = 6\nvalue = 81.262"] ;
226 -> 227 ;
228 [label="Temperature <= 15.65\nmse = 580.769\nsamples = 2\nvalue = 92.419"] ;
227 -> 228 ;
229 [label="mse = 0.0\nsamples = 1\nvalue = 116.518"] ;
228 -> 229 ;
230 [label="mse = 0.0\nsamples = 1\nvalue = 68.32"] ;
228 -> 230 ;
231 [label="Temperature <= 15.652\nmse = 122.205\nsamples = 4\nvalue = 75.684"] ;
227 -> 231 ;
232 [label="mse = 0.0\nsamples = 1\nvalue = 68.141"] ;
231 -> 232 ;
233 [label="mse = 137.654\nsamples = 3\nvalue = 78.198"] ;
231 -> 233 ;
234 [label="Temperature <= 15.656\nmse = 2312.896\nsamples = 7\nvalue = 126.229"] ;
226 -> 234 ;
235 [label="Temperature <= 15.655\nmse = 536.828\nsamples = 2\nvalue = 160.695"] ;
234 -> 235 ;
236 [label="mse = 0.0\nsamples = 1\nvalue = 137.525"] ;
235 -> 236 ;
237 [label="mse = 0.0\nsamples = 1\nvalue = 183.864"] ;
235 -> 237 ;
238 [label="Temperature <= 15.657\nmse = 2358.121\nsamples = 5\nvalue = 112.443"] ;
234 -> 238 ;
239 [label="mse = 0.0\nsamples = 1\nvalue = 61.381"] ;
238 -> 239 ;
240 [label="RouteID <= 3300.0\nmse = 2132.87\nsamples = 4\nvalue = 125.208"] ;
238 -> 240 ;
241 [label="mse = 1597.334\nsamples = 2\nvalue = 152.52"] ;
240 -> 241 ;
242 [label="Temperature <= 15.659\nmse = 1176.567\nsamples = 2\nvalue = 97.897"] ;
240 -> 242 ;
243 [label="mse = 0.0\nsamples = 1\nvalue = 132.198"] ;
242 -> 243 ;
244 [label="mse = 0.0\nsamples = 1\nvalue = 63.596"] ;
242 -> 244 ;
245 [label="RouteID <= 3030.0\nmse = 5717.252\nsamples = 366\nvalue = 120.298"] ;
117 -> 245 ;
246 [label="RouteID <= 87.5\nmse = 7009.442\nsamples = 205\nvalue = 127.102"] ;
245 -> 246 ;
247 [label="RouteID <= 80.0\nmse = 3471.173\nsamples = 81\nvalue = 117.564"] ;
246 -> 247 ;
248 [label="CurrentTime <= 18.5\nmse = 15287.866\nsamples = 8\nvalue = 162.548"] ;
247 -> 248 ;
249 [label="Wind <= 3.05\nmse = 8.586\nsamples = 2\nvalue = 65.375"] ;
248 -> 249 ;
250 [label="mse = 0.0\nsamples = 1\nvalue = 62.444"] ;
249 -> 250 ;
251 [label="mse = -0.0\nsamples = 1\nvalue = 68.305"] ;
249 -> 251 ;
252 [label="CurrentTime <= 19.5\nmse = 16184.199\nsamples = 6\nvalue = 194.939"] ;
248 -> 252 ;
253 [label="Temperature <= 11.955\nmse = 15575.319\nsamples = 5\nvalue = 220.256"] ;
252 -> 253 ;
254 [label="Temperature <= 11.405\nmse = 18672.204\nsamples = 4\nvalue = 232.881"] ;
253 -> 254 ;
255 [label="mse = 25376.996\nsamples = 2\nvalue = 222.365"] ;
254 -> 255 ;
256 [label="mse = 11746.224\nsamples = 2\nvalue = 243.398"] ;
254 -> 256 ;
257 [label="mse = 0.0\nsamples = 1\nvalue = 169.757"] ;
253 -> 257 ;
258 [label="mse = -0.0\nsamples = 1\nvalue = 68.354"] ;
252 -> 258 ;
259 [label="Temperature <= 11.528\nmse = 1930.13\nsamples = 73\nvalue = 112.634"] ;
247 -> 259 ;
260 [label="Temperature <= 10.901\nmse = 3975.485\nsamples = 17\nvalue = 128.666"] ;
259 -> 260 ;
261 [label="Wind <= 3.4\nmse = 3730.172\nsamples = 14\nvalue = 118.016"] ;
260 -> 261 ;
262 [label="Temperature <= 10.298\nmse = 296.479\nsamples = 3\nvalue = 85.651"] ;
261 -> 262 ;
263 [label="Wind <= 2.587\nmse = 30.331\nsamples = 2\nvalue = 97.404"] ;
262 -> 263 ;
264 [label="mse = 0.0\nsamples = 1\nvalue = 91.897"] ;
263 -> 264 ;
265 [label="mse = 0.0\nsamples = 1\nvalue = 102.912"] ;
263 -> 265 ;
266 [label="mse = 0.0\nsamples = 1\nvalue = 62.146"] ;
262 -> 266 ;
267 [label="Wind <= 4.303\nmse = 4303.043\nsamples = 11\nvalue = 126.843"] ;
261 -> 267 ;
268 [label="mse = 0.0\nsamples = 1\nvalue = 288.352"] ;
267 -> 268 ;
269 [label="CurrentTime <= 19.5\nmse = 1864.0\nsamples = 10\nvalue = 110.692"] ;
267 -> 269 ;
270 [label="mse = 2137.327\nsamples = 6\nvalue = 123.143"] ;
269 -> 270 ;
271 [label="mse = 872.678\nsamples = 4\nvalue = 92.016"] ;
269 -> 271 ;
272 [label="Temperature <= 10.904\nmse = 2120.897\nsamples = 3\nvalue = 178.366"] ;
260 -> 272 ;
273 [label="mse = 0.0\nsamples = 1\nvalue = 241.124"] ;
272 -> 273 ;
274 [label="Temperature <= 11.026\nmse = 227.442\nsamples = 2\nvalue = 146.987"] ;
272 -> 274 ;
275 [label="mse = 0.0\nsamples = 1\nvalue = 131.906"] ;
274 -> 275 ;
276 [label="mse = 0.0\nsamples = 1\nvalue = 162.068"] ;
274 -> 276 ;
277 [label="CurrentTime <= 19.5\nmse = 1207.509\nsamples = 56\nvalue = 107.768"] ;
259 -> 277 ;
278 [label="Wind <= 3.05\nmse = 1143.203\nsamples = 45\nvalue = 105.326"] ;
277 -> 278 ;
279 [label="CurrentTime <= 18.5\nmse = 1063.129\nsamples = 22\nvalue = 106.404"] ;
278 -> 279 ;
280 [label="mse = 756.928\nsamples = 9\nvalue = 98.37"] ;
279 -> 280 ;
281 [label="mse = 1199.486\nsamples = 13\nvalue = 111.966"] ;
279 -> 281 ;
282 [label="CurrentTime <= 18.5\nmse = 1217.621\nsamples = 23\nvalue = 104.296"] ;
278 -> 282 ;
283 [label="mse = 652.787\nsamples = 9\nvalue = 110.112"] ;
282 -> 283 ;
284 [label="mse = 1544.999\nsamples = 14\nvalue = 100.556"] ;
282 -> 284 ;
285 [label="Wind <= 3.05\nmse = 1346.473\nsamples = 11\nvalue = 117.754"] ;
277 -> 285 ;
286 [label="mse = 1059.471\nsamples = 6\nvalue = 105.098"] ;
285 -> 286 ;
287 [label="mse = 1267.994\nsamples = 5\nvalue = 132.942"] ;
285 -> 287 ;
288 [label="Temperature <= 11.496\nmse = 9222.483\nsamples = 124\nvalue = 133.333"] ;
246 -> 288 ;
289 [label="Wind <= 1.672\nmse = 1332.241\nsamples = 35\nvalue = 105.268"] ;
288 -> 289 ;
290 [label="mse = 0.0\nsamples = 1\nvalue = 154.18"] ;
289 -> 290 ;
291 [label="Wind <= 3.783\nmse = 1298.991\nsamples = 34\nvalue = 103.829"] ;
289 -> 291 ;
292 [label="Wind <= 2.914\nmse = 17.046\nsamples = 4\nvalue = 71.448"] ;
291 -> 292 ;
293 [label="Temperature <= 9.34\nmse = 0.022\nsamples = 2\nvalue = 74.205"] ;
292 -> 293 ;
294 [label="mse = 0.0\nsamples = 1\nvalue = 74.056"] ;
293 -> 294 ;
295 [label="mse = -0.0\nsamples = 1\nvalue = 74.355"] ;
293 -> 295 ;
296 [label="Wind <= 3.463\nmse = 18.869\nsamples = 2\nvalue = 68.691"] ;
292 -> 296 ;
297 [label="mse = 0.0\nsamples = 1\nvalue = 64.348"] ;
296 -> 297 ;
298 [label="mse = 0.0\nsamples = 1\nvalue = 73.035"] ;
296 -> 298 ;
299 [label="RouteID <= 1550.0\nmse = 1311.475\nsamples = 30\nvalue = 108.146"] ;
291 -> 299 ;
300 [label="Temperature <= 11.117\nmse = 647.237\nsamples = 10\nvalue = 99.206"] ;
299 -> 300 ;
301 [label="CurrentTime <= 19.5\nmse = 702.66\nsamples = 9\nvalue = 100.491"] ;
300 -> 301 ;
302 [label="mse = 512.617\nsamples = 5\nvalue = 96.799"] ;
301 -> 302 ;
303 [label="mse = 901.887\nsamples = 4\nvalue = 105.105"] ;
301 -> 303 ;
304 [label="mse = 0.0\nsamples = 1\nvalue = 87.648"] ;
300 -> 304 ;
305 [label="RouteID <= 3015.0\nmse = 1583.652\nsamples = 20\nvalue = 112.616"] ;
299 -> 305 ;
306 [label="CurrentTime <= 19.5\nmse = 2233.594\nsamples = 9\nvalue = 119.698"] ;
305 -> 306 ;
307 [label="mse = 2359.792\nsamples = 4\nvalue = 115.627"] ;
306 -> 307 ;
308 [label="Wind <= 4.518\nmse = 2108.77\nsamples = 5\nvalue = 122.955"] ;
306 -> 308 ;
309 [label="mse = 0.0\nsamples = 1\nvalue = 122.33"] ;
308 -> 309 ;
310 [label="mse = 2635.84\nsamples = 4\nvalue = 123.111"] ;
308 -> 310 ;
311 [label="CurrentTime <= 19.5\nmse = 977.283\nsamples = 11\nvalue = 106.823"] ;
305 -> 311 ;
312 [label="mse = 852.713\nsamples = 5\nvalue = 107.981"] ;
311 -> 312 ;
313 [label="mse = 1079.04\nsamples = 6\nvalue = 105.857"] ;
311 -> 313 ;
314 [label="CurrentTime <= 18.5\nmse = 11893.824\nsamples = 89\nvalue = 144.37"] ;
288 -> 314 ;
315 [label="RouteID <= 3015.0\nmse = 8372.792\nsamples = 29\nvalue = 128.502"] ;
314 -> 315 ;
316 [label="Wind <= 3.05\nmse = 3569.695\nsamples = 22\nvalue = 122.55"] ;
315 -> 316 ;
317 [label="RouteID <= 1550.0\nmse = 6277.18\nsamples = 8\nvalue = 144.82"] ;
316 -> 317 ;
318 [label="mse = 7074.4\nsamples = 6\nvalue = 161.988"] ;
317 -> 318 ;
319 [label="mse = 348.981\nsamples = 2\nvalue = 93.319"] ;
317 -> 319 ;
320 [label="RouteID <= 1550.0\nmse = 1577.21\nsamples = 14\nvalue = 109.825"] ;
316 -> 320 ;
321 [label="mse = 222.133\nsamples = 6\nvalue = 88.897"] ;
320 -> 321 ;
322 [label="mse = 2018.692\nsamples = 8\nvalue = 125.52"] ;
320 -> 322 ;
323 [label="Temperature <= 11.955\nmse = 23007.033\nsamples = 7\nvalue = 147.207"] ;
315 -> 323 ;
324 [label="mse = 19.49\nsamples = 3\nvalue = 64.951"] ;
323 -> 324 ;
325 [label="mse = 31367.245\nsamples = 4\nvalue = 208.899"] ;
323 -> 325 ;
326 [label="Wind <= 2.895\nmse = 13415.143\nsamples = 60\nvalue = 152.039"] ;
314 -> 326 ;
327 [label="RouteID <= 1550.0\nmse = 15549.533\nsamples = 29\nvalue = 143.23"] ;
326 -> 327 ;
328 [label="CurrentTime <= 19.5\nmse = 28048.698\nsamples = 13\nvalue = 196.284"] ;
327 -> 328 ;
329 [label="mse = 15083.009\nsamples = 10\nvalue = 170.295"] ;
328 -> 329 ;
330 [label="mse = 61512.079\nsamples = 3\nvalue = 282.911"] ;
328 -> 330 ;
331 [label="CurrentTime <= 19.5\nmse = 1248.866\nsamples = 16\nvalue = 100.124"] ;
327 -> 331 ;
332 [label="RouteID <= 3015.0\nmse = 541.645\nsamples = 4\nvalue = 77.383"] ;
331 -> 332 ;
333 [label="mse = 669.736\nsamples = 3\nvalue = 81.005"] ;
332 -> 333 ;
334 [label="mse = 0.0\nsamples = 1\nvalue = 66.519"] ;
332 -> 334 ;
335 [label="RouteID <= 3015.0\nmse = 1254.776\nsamples = 12\nvalue = 107.704"] ;
331 -> 335 ;
336 [label="mse = 1222.924\nsamples = 7\nvalue = 110.757"] ;
335 -> 336 ;
337 [label="mse = 1268.045\nsamples = 5\nvalue = 103.429"] ;
335 -> 337 ;
338 [label="RouteID <= 1550.0\nmse = 11277.951\nsamples = 31\nvalue = 160.28"] ;
326 -> 338 ;
339 [label="CurrentTime <= 19.5\nmse = 2754.922\nsamples = 12\nvalue = 111.291"] ;
338 -> 339 ;
340 [label="mse = 2772.6\nsamples = 8\nvalue = 106.241"] ;
339 -> 340 ;
341 [label="mse = 2566.583\nsamples = 4\nvalue = 121.39"] ;
339 -> 341 ;
342 [label="CurrentTime <= 19.5\nmse = 14187.868\nsamples = 19\nvalue = 191.22"] ;
338 -> 342 ;
343 [label="RouteID <= 3015.0\nmse = 15510.705\nsamples = 14\nvalue = 179.389"] ;
342 -> 343 ;
344 [label="mse = 7036.208\nsamples = 8\nvalue = 154.544"] ;
343 -> 344 ;
345 [label="mse = 24889.606\nsamples = 6\nvalue = 212.516"] ;
343 -> 345 ;
346 [label="RouteID <= 3015.0\nmse = 8994.679\nsamples = 5\nvalue = 224.346"] ;
342 -> 346 ;
347 [label="mse = 828.554\nsamples = 2\nvalue = 265.348"] ;
346 -> 347 ;
348 [label="Temperature <= 11.829\nmse = 12570.793\nsamples = 3\nvalue = 197.012"] ;
346 -> 348 ;
349 [label="mse = 0.0\nsamples = 1\nvalue = 182.877"] ;
348 -> 349 ;
350 [label="mse = 18706.349\nsamples = 2\nvalue = 204.079"] ;
348 -> 350 ;
351 [label="Temperature <= 11.955\nmse = 3937.891\nsamples = 161\nvalue = 111.633"] ;
245 -> 351 ;
352 [label="RouteID <= 3105.0\nmse = 5881.743\nsamples = 86\nvalue = 118.031"] ;
351 -> 352 ;
353 [label="CurrentTime <= 19.5\nmse = 9152.208\nsamples = 31\nvalue = 129.4"] ;
352 -> 353 ;
354 [label="Temperature <= 11.405\nmse = 14335.898\nsamples = 17\nvalue = 158.974"] ;
353 -> 354 ;
355 [label="mse = 2064.757\nsamples = 3\nvalue = 102.339"] ;
354 -> 355 ;
356 [label="CurrentTime <= 18.5\nmse = 16130.819\nsamples = 14\nvalue = 171.11"] ;
354 -> 356 ;
357 [label="mse = 1777.868\nsamples = 5\nvalue = 180.857"] ;
356 -> 357 ;
358 [label="mse = 24022.578\nsamples = 9\nvalue = 165.695"] ;
356 -> 358 ;
359 [label="Wind <= 4.721\nmse = 505.998\nsamples = 14\nvalue = 93.488"] ;
353 -> 359 ;
360 [label="Wind <= 3.093\nmse = 465.789\nsamples = 9\nvalue = 90.527"] ;
359 -> 360 ;
361 [label="Temperature <= 10.434\nmse = 417.935\nsamples = 8\nvalue = 93.96"] ;
360 -> 361 ;
362 [label="mse = 0.0\nsamples = 1\nvalue = 83.503"] ;
361 -> 362 ;
363 [label="mse = 459.787\nsamples = 7\nvalue = 95.454"] ;
361 -> 363 ;
364 [label="mse = 0.0\nsamples = 1\nvalue = 63.061"] ;
360 -> 364 ;
365 [label="mse = 534.182\nsamples = 5\nvalue = 98.818"] ;
359 -> 365 ;
366 [label="RouteID <= 3180.0\nmse = 3924.492\nsamples = 55\nvalue = 111.624"] ;
352 -> 366 ;
367 [label="Wind <= 2.83\nmse = 1102.617\nsamples = 23\nvalue = 91.448"] ;
366 -> 367 ;
368 [label="CurrentTime <= 19.5\nmse = 143.974\nsamples = 14\nvalue = 82.625"] ;
367 -> 368 ;
369 [label="CurrentTime <= 18.5\nmse = 93.865\nsamples = 10\nvalue = 79.618"] ;
368 -> 369 ;
370 [label="mse = 65.678\nsamples = 5\nvalue = 81.76"] ;
369 -> 370 ;
371 [label="mse = 112.879\nsamples = 5\nvalue = 77.476"] ;
369 -> 371 ;
372 [label="Temperature <= 10.459\nmse = 190.128\nsamples = 4\nvalue = 90.143"] ;
368 -> 372 ;
373 [label="mse = 0.0\nsamples = 1\nvalue = 80.604"] ;
372 -> 373 ;
374 [label="mse = 213.066\nsamples = 3\nvalue = 93.322"] ;
372 -> 374 ;
375 [label="Wind <= 4.437\nmse = 2284.377\nsamples = 9\nvalue = 105.173"] ;
367 -> 375 ;
376 [label="mse = 0.0\nsamples = 1\nvalue = 206.911"] ;
375 -> 376 ;
377 [label="CurrentTime <= 19.5\nmse = 1114.359\nsamples = 8\nvalue = 92.456"] ;
375 -> 377 ;
378 [label="mse = 1494.864\nsamples = 4\nvalue = 96.093"] ;
377 -> 378 ;
379 [label="mse = 707.397\nsamples = 4\nvalue = 88.818"] ;
377 -> 379 ;
380 [label="Wind <= 4.612\nmse = 5449.851\nsamples = 32\nvalue = 126.125"] ;
366 -> 380 ;
381 [label="CurrentTime <= 19.5\nmse = 2887.081\nsamples = 18\nvalue = 114.295"] ;
380 -> 381 ;
382 [label="RouteID <= 3300.0\nmse = 560.4\nsamples = 10\nvalue = 100.639"] ;
381 -> 382 ;
383 [label="CurrentTime <= 18.5\nmse = 559.665\nsamples = 6\nvalue = 95.751"] ;
382 -> 383 ;
384 [label="mse = 84.575\nsamples = 2\nvalue = 102.54"] ;
383 -> 384 ;
385 [label="mse = 762.641\nsamples = 4\nvalue = 92.357"] ;
383 -> 385 ;
386 [label="CurrentTime <= 18.5\nmse = 471.917\nsamples = 4\nvalue = 107.97"] ;
382 -> 386 ;
387 [label="mse = 0.0\nsamples = 1\nvalue = 87.898"] ;
386 -> 387 ;
388 [label="mse = 450.153\nsamples = 3\nvalue = 114.661"] ;
386 -> 388 ;
389 [label="RouteID <= 3300.0\nmse = 5270.918\nsamples = 8\nvalue = 131.365"] ;
381 -> 389 ;
390 [label="Temperature <= 11.692\nmse = 7588.614\nsamples = 4\nvalue = 163.81"] ;
389 -> 390 ;
391 [label="Wind <= 3.759\nmse = 204.821\nsamples = 2\nvalue = 109.842"] ;
390 -> 391 ;
392 [label="mse = 0.0\nsamples = 1\nvalue = 124.154"] ;
391 -> 392 ;
393 [label="mse = -0.0\nsamples = 1\nvalue = 95.531"] ;
391 -> 393 ;
394 [label="mse = 9147.306\nsamples = 2\nvalue = 217.778"] ;
390 -> 394 ;
395 [label="Wind <= 2.397\nmse = 847.872\nsamples = 4\nvalue = 98.92"] ;
389 -> 395 ;
396 [label="mse = 1128.579\nsamples = 3\nvalue = 98.228"] ;
395 -> 396 ;
397 [label="mse = 0.0\nsamples = 1\nvalue = 100.997"] ;
395 -> 397 ;
398 [label="CurrentTime <= 19.5\nmse = 8333.557\nsamples = 14\nvalue = 141.335"] ;
380 -> 398 ;
399 [label="RouteID <= 3300.0\nmse = 7698.255\nsamples = 8\nvalue = 131.788"] ;
398 -> 399 ;
400 [label="mse = 0.0\nsamples = 1\nvalue = 113.341"] ;
399 -> 400 ;
401 [label="mse = 8742.447\nsamples = 7\nvalue = 134.423"] ;
399 -> 401 ;
402 [label="RouteID <= 3300.0\nmse = 8897.038\nsamples = 6\nvalue = 154.065"] ;
398 -> 402 ;
403 [label="mse = 0.0\nsamples = 1\nvalue = 132.501"] ;
402 -> 403 ;
404 [label="mse = 10564.844\nsamples = 5\nvalue = 158.378"] ;
402 -> 404 ;
405 [label="CurrentTime <= 19.5\nmse = 1608.18\nsamples = 75\nvalue = 104.297"] ;
351 -> 405 ;
406 [label="RouteID <= 3180.0\nmse = 1349.678\nsamples = 60\nvalue = 100.544"] ;
405 -> 406 ;
407 [label="CurrentTime <= 18.5\nmse = 1521.106\nsamples = 38\nvalue = 103.317"] ;
406 -> 407 ;
408 [label="RouteID <= 3105.0\nmse = 1663.075\nsamples = 18\nvalue = 100.314"] ;
407 -> 408 ;
409 [label="mse = 752.449\nsamples = 6\nvalue = 112.783"] ;
408 -> 409 ;
410 [label="mse = 2001.767\nsamples = 12\nvalue = 94.079"] ;
408 -> 410 ;
411 [label="RouteID <= 3105.0\nmse = 1377.908\nsamples = 20\nvalue = 106.02"] ;
407 -> 411 ;
412 [label="mse = 388.835\nsamples = 9\nvalue = 91.991"] ;
411 -> 412 ;
413 [label="mse = 1894.376\nsamples = 11\nvalue = 117.498"] ;
411 -> 413 ;
414 [label="RouteID <= 3300.0\nmse = 1017.343\nsamples = 22\nvalue = 95.753"] ;
406 -> 414 ;
415 [label="CurrentTime <= 18.5\nmse = 1341.731\nsamples = 12\nvalue = 92.357"] ;
414 -> 415 ;
416 [label="mse = 1996.273\nsamples = 4\nvalue = 88.196"] ;
415 -> 416 ;
417 [label="mse = 1001.474\nsamples = 8\nvalue = 94.438"] ;
415 -> 417 ;
418 [label="CurrentTime <= 18.5\nmse = 597.636\nsamples = 10\nvalue = 99.828"] ;
414 -> 418 ;
419 [label="mse = 478.849\nsamples = 5\nvalue = 107.828"] ;
418 -> 419 ;
420 [label="mse = 588.413\nsamples = 5\nvalue = 91.828"] ;
418 -> 420 ;
421 [label="RouteID <= 3105.0\nmse = 2360.417\nsamples = 15\nvalue = 119.311"] ;
405 -> 421 ;
422 [label="mse = 366.903\nsamples = 6\nvalue = 92.284"] ;
421 -> 422 ;
423 [label="RouteID <= 3300.0\nmse = 2877.782\nsamples = 9\nvalue = 137.329"] ;
421 -> 423 ;
424 [label="RouteID <= 3180.0\nmse = 3095.289\nsamples = 7\nvalue = 148.817"] ;
423 -> 424 ;
425 [label="mse = 2446.681\nsamples = 3\nvalue = 137.871"] ;
424 -> 425 ;
426 [label="mse = 3424.47\nsamples = 4\nvalue = 157.027"] ;
424 -> 426 ;
427 [label="mse = 37.874\nsamples = 2\nvalue = 97.121"] ;
423 -> 427 ;
428 [label="RouteID <= 3015.0\nmse = 212167.727\nsamples = 24\nvalue = 321.7"] ;
22 -> 428 ;
429 [label="RouteID <= 1550.0\nmse = 276675.729\nsamples = 16\nvalue = 439.201"] ;
428 -> 429 ;
430 [label="RouteID <= 87.5\nmse = 8799.481\nsamples = 11\nvalue = 163.789"] ;
429 -> 430 ;
431 [label="RouteID <= 77.5\nmse = 4858.132\nsamples = 9\nvalue = 137.11"] ;
430 -> 431 ;
432 [label="RouteID <= 60.0\nmse = 6157.656\nsamples = 5\nvalue = 147.07"] ;
431 -> 432 ;
433 [label="mse = 8707.666\nsamples = 3\nvalue = 137.783"] ;
432 -> 433 ;
434 [label="mse = 2009.22\nsamples = 2\nvalue = 161.0"] ;
432 -> 434 ;
435 [label="mse = 2954.762\nsamples = 4\nvalue = 124.661"] ;
431 -> 435 ;
436 [label="mse = 8920.23\nsamples = 2\nvalue = 283.841"] ;
430 -> 436 ;
437 [label="mse = 332007.257\nsamples = 5\nvalue = 1045.107"] ;
429 -> 437 ;
438 [label="RouteID <= 3105.0\nmse = 313.083\nsamples = 8\nvalue = 86.698"] ;
428 -> 438 ;
439 [label="RouteID <= 3030.0\nmse = 347.513\nsamples = 5\nvalue = 93.127"] ;
438 -> 439 ;
440 [label="mse = 96.191\nsamples = 2\nvalue = 100.962"] ;
439 -> 440 ;
441 [label="mse = 446.857\nsamples = 3\nvalue = 87.904"] ;
439 -> 441 ;
442 [label="mse = 72.028\nsamples = 3\nvalue = 75.984"] ;
438 -> 442 ;
}